digraph Tree {
node [shape=box] ;
0 [label="X[1] <= 2.5\ngini = 0.456\nsamples = 546\nvalue = [354, 192]"] ;
1 [label="X[5] <= 5.5\ngini = 0.069\nsamples = 337\nvalue = [325, 12]"] ;
0 -> 1 [labeldistance=2.5, labelangle=45, headlabel="True"] ;
2 [label="X[0] <= 6.5\ngini = 0.03\nsamples = 329\nvalue = [324, 5]"] ;
1 -> 2 ;
3 [label="X[7] <= 9.0\ngini = 0.012\nsamples = 324\nvalue = [322, 2]"] ;
2 -> 3 ;
4 [label="X[5] <= 4.5\ngini = 0.006\nsamples = 323\nvalue = [322, 1]"] ;
3 -> 4 ;
5 [label="gini = 0.0\nsamples = 317\nvalue = [317, 0]"] ;
4 -> 5 ;
6 [label="X[3] <= 2.0\ngini = 0.278\nsamples = 6\nvalue = [5, 1]"] ;
4 -> 6 ;
7 [label="gini = 0.0\nsamples = 5\nvalue = [5, 0]"] ;
6 -> 7 ;
8 [label="gini = 0.0\nsamples = 1\nvalue = [0, 1]"] ;
6 -> 8 ;
9 [label="gini = 0.0\nsamples = 1\nvalue = [0, 1]"] ;
3 -> 9 ;
10 [label="X[2] <= 2.5\ngini = 0.48\nsamples = 5\nvalue = [2, 3]"] ;
2 -> 10 ;
11 [label="gini = 0.0\nsamples = 2\nvalue = [2, 0]"] ;
10 -> 11 ;
12 [label="gini = 0.0\nsamples = 3\nvalue = [0, 3]"] ;
10 -> 12 ;
13 [label="X[0] <= 2.5\ngini = 0.219\nsamples = 8\nvalue = [1, 7]"] ;
1 -> 13 ;
14 [label="gini = 0.0\nsamples = 1\nvalue = [1, 0]"] ;
13 -> 14 ;
15 [label="gini = 0.0\nsamples = 7\nvalue = [0, 7]"] ;
13 -> 15 ;
16 [label="X[2] <= 2.5\ngini = 0.239\nsamples = 209\nvalue = [29, 180]"] ;
0 -> 16 [labeldistance=2.5, labelangle=-45, headlabel="False"] ;
17 [label="X[0] <= 5.5\ngini = 0.332\nsamples = 19\nvalue = [15, 4]"] ;
16 -> 17 ;
18 [label="gini = 0.0\nsamples = 15\nvalue = [15, 0]"] ;
17 -> 18 ;
19 [label="gini = 0.0\nsamples = 4\nvalue = [0, 4]"] ;
17 -> 19 ;
20 [label="X[1] <= 4.5\ngini = 0.137\nsamples = 190\nvalue = [14, 176]"] ;
16 -> 20 ;
21 [label="X[5] <= 7.5\ngini = 0.357\nsamples = 56\nvalue = [13, 43]"] ;
20 -> 21 ;
22 [label="X[7] <= 1.5\ngini = 0.488\nsamples = 26\nvalue = [11, 15]"] ;
21 -> 22 ;
23 [label="gini = 0.0\nsamples = 5\nvalue = [5, 0]"] ;
22 -> 23 ;
24 [label="X[7] <= 8.5\ngini = 0.408\nsamples = 21\nvalue = [6, 15]"] ;
22 -> 24 ;
25 [label="X[7] <= 5.5\ngini = 0.49\nsamples = 14\nvalue = [6, 8]"] ;
24 -> 25 ;
26 [label="X[6] <= 6.5\ngini = 0.397\nsamples = 11\nvalue = [3, 8]"] ;
25 -> 26 ;
27 [label="X[5] <= 2.5\ngini = 0.32\nsamples = 10\nvalue = [2, 8]"] ;
26 -> 27 ;
28 [label="X[3] <= 2.5\ngini = 0.5\nsamples = 4\nvalue = [2, 2]"] ;
27 -> 28 ;
29 [label="gini = 0.0\nsamples = 2\nvalue = [2, 0]"] ;
28 -> 29 ;
30 [label="gini = 0.0\nsamples = 2\nvalue = [0, 2]"] ;
28 -> 30 ;
31 [label="gini = 0.0\nsamples = 6\nvalue = [0, 6]"] ;
27 -> 31 ;
32 [label="gini = 0.0\nsamples = 1\nvalue = [1, 0]"] ;
26 -> 32 ;
33 [label="gini = 0.0\nsamples = 3\nvalue = [3, 0]"] ;
25 -> 33 ;
34 [label="gini = 0.0\nsamples = 7\nvalue = [0, 7]"] ;
24 -> 34 ;
35 [label="X[4] <= 6.5\ngini = 0.124\nsamples = 30\nvalue = [2, 28]"] ;
21 -> 35 ;
36 [label="X[8] <= 2.5\ngini = 0.069\nsamples = 28\nvalue = [1, 27]"] ;
35 -> 36 ;
37 [label="gini = 0.0\nsamples = 25\nvalue = [0, 25]"] ;
36 -> 37 ;
38 [label="X[7] <= 4.0\ngini = 0.444\nsamples = 3\nvalue = [1, 2]"] ;
36 -> 38 ;
39 [label="gini = 0.0\nsamples = 2\nvalue = [0, 2]"] ;
38 -> 39 ;
40 [label="gini = 0.0\nsamples = 1\nvalue = [1, 0]"] ;
38 -> 40 ;
41 [label="X[6] <= 4.0\ngini = 0.5\nsamples = 2\nvalue = [1, 1]"] ;
35 -> 41 ;
42 [label="gini = 0.0\nsamples = 1\nvalue = [1, 0]"] ;
41 -> 42 ;
43 [label="gini = 0.0\nsamples = 1\nvalue = [0, 1]"] ;
41 -> 43 ;
44 [label="X[3] <= 1.5\ngini = 0.015\nsamples = 134\nvalue = [1, 133]"] ;
20 -> 44 ;
45 [label="X[0] <= 7.0\ngini = 0.219\nsamples = 8\nvalue = [1, 7]"] ;
44 -> 45 ;
46 [label="X[6] <= 5.0\ngini = 0.5\nsamples = 2\nvalue = [1, 1]"] ;
45 -> 46 ;
47 [label="gini = 0.0\nsamples = 1\nvalue = [1, 0]"] ;
46 -> 47 ;
48 [label="gini = 0.0\nsamples = 1\nvalue = [0, 1]"] ;
46 -> 48 ;
49 [label="gini = 0.0\nsamples = 6\nvalue = [0, 6]"] ;
45 -> 49 ;
50 [label="gini = 0.0\nsamples = 126\nvalue = [0, 126]"] ;
44 -> 50 ;
}
